/*
 * ESPectre - ML Model Weights
 * 
 * Auto-generated neural network weights for motion detection.
 * Architecture: 9 -> 32 -> 16 -> 1
 * Normalization: standard
 * Trained: 2026-05-19 14:22:34
 * Seed: 20260521
 * 
 * This file is auto-generated by 10_train_ml_model.py.
 * DO NOT EDIT - your changes will be overwritten!
 * 
 * Author: Francesco Pace <francesco.pace@gmail.com>
 * License: GPLv3
 */

#pragma once

namespace esphome {
namespace espectre {

// Model metadata
constexpr uint8_t ML_MODEL_NUM_LAYERS = 3;
constexpr uint8_t ML_MODEL_INPUT_SIZE = 9;
constexpr uint8_t ML_MAX_LAYER_WIDTH = 32;
constexpr uint8_t ML_MODEL_LAYER_SIZES[4] = {9, 32, 16, 1};
constexpr char ML_NORMALIZATION_MODE[] = "standard";

// Feature normalization
constexpr float ML_FEATURE_MEAN[9] = {5.671596f, 1.037245f, 8.703724f, 3.561179f, 1.308192f, 0.433239f, 0.393693f, 0.630218f, 66.583588f};
constexpr float ML_FEATURE_SCALE[9] = {2.958375f, 0.808149f, 4.152263f, 2.600948f, 1.133145f, 0.956896f, 0.312057f, 0.543564f, 48.852283f};

// Layer 1: 9 -> 32 (ReLU)
constexpr float ML_W1[288] = {0.155474f, 0.564983f, 0.479415f, -0.249366f, 0.478832f, -0.692924f, 0.267310f, -0.851846f, 0.634521f, -0.572860f, 0.188592f, -0.242762f, 0.532076f, 0.200024f, -0.264420f, -0.251754f, -0.496946f, -0.619611f, -0.374848f, -0.629049f, 0.292049f, 0.130231f, -0.123687f, -0.477070f, -0.037767f, 0.134848f, 0.489927f, 0.120172f, 0.123298f, -0.420920f, -0.096471f, -0.064378f, -0.202224f, -0.323147f, 0.360778f, -0.009728f, 0.180028f, -0.257507f, -0.193527f, -0.088559f, 0.526263f, 0.311282f, 0.698001f, 0.544706f, -0.128085f, -0.625363f, -0.406337f, -0.528385f, -0.699180f, 0.377489f, -0.356466f, -0.158520f, -0.048576f, -0.002257f, -0.143709f, -0.398141f, -0.293465f, -0.203811f, -0.014878f, 0.159296f, 0.333995f, -0.363980f, 0.284230f, -0.251109f, -0.452925f, 0.244959f, 0.546258f, 0.344507f, 0.654947f, 0.134845f, -0.867450f, 0.894566f, -0.178682f, -0.706668f, 0.214240f, 0.204896f, 0.542690f, 0.310084f, -0.057824f, -0.271797f, 0.730667f, 0.282012f, -0.595480f, 0.995182f, 0.730689f, -1.011532f, -0.969765f, 0.156241f, 0.181371f, -0.590384f, 0.203812f, -0.430894f, 0.468382f, 0.196111f, 0.303433f, 0.121881f, 0.291758f, 0.131200f, -0.164229f, 0.454724f, -0.397897f, -0.208353f, 0.034580f, -0.065407f, 0.025074f, 0.559673f, 0.147082f, -0.807674f, -0.136565f, -0.250491f, 0.310451f, 0.428546f, 0.165410f, -0.040289f, 0.875776f, -0.205110f, -0.066166f, 0.480652f, 0.165913f, -0.202882f, 0.291112f, 0.287913f, 0.409085f, 0.543510f, 0.418151f, -0.249549f, -0.784163f, 0.157006f, -0.436678f, -0.323239f, 0.185915f, -0.925056f, -0.182402f, 0.396511f, -0.430924f, 0.033137f, -0.028003f, -0.627494f, -0.071605f, 0.330111f, -0.083956f, -0.095106f, -0.346312f, 0.011285f, -0.033831f, -0.033889f, -0.389618f, 0.085494f, 0.011845f, -0.550377f, -0.301711f, 0.003606f, -0.141856f, -0.391834f, 0.394233f, 0.181965f, 0.005119f, 0.092659f, -0.124248f, -0.316659f, 0.065664f, 0.008378f, 0.299196f, -0.034241f, 0.085284f, -0.176288f, 0.112916f, -0.049636f, 0.330143f, 0.115994f, -0.156165f, -0.420971f, 0.301896f, 0.030857f, 0.066503f, 0.101049f, -0.040006f, -0.561462f, 0.137929f, -0.123470f, 0.352531f, 0.198261f, 0.217589f, 0.461691f, -0.037368f, 0.115248f, -0.366102f, -0.237955f, 0.587032f, 0.384476f, 0.085088f, -0.027643f, 0.027716f, -0.324309f, 0.049438f, -0.154391f, 0.604989f, 0.820593f, -0.070340f, 0.278373f, -0.036654f, -0.321655f, 0.585639f, -0.229438f, 0.506772f, 0.954675f, -0.267408f, 1.116128f, -0.235936f, -0.303718f, -0.348506f, 0.211749f, -0.038775f, -0.056489f, -0.410090f, 0.555907f, -0.017565f, -0.371129f, 0.031686f, -0.024943f, 0.226169f, 0.533472f, 0.222493f, 0.072923f, -0.339149f, -0.891915f, 0.373248f, -0.240151f, -0.080677f, -0.232365f, -0.611727f, -0.263783f, 0.382138f, -0.043246f, -0.136186f, 0.194507f, -0.073702f, 0.018551f, -0.162384f, -0.090329f, -0.003153f, -0.306176f, 0.578326f, -0.707340f, 0.037682f, -0.335324f, -0.069501f, 0.148548f, -1.260212f, -0.355650f, -0.508285f, -0.130027f, 0.132590f, -0.073573f, -0.176720f, -0.930902f, -0.447734f, -0.105664f, -0.829025f, 0.128717f, -1.342549f, -0.469557f, 0.699699f, -0.079202f, -0.309601f, 0.205801f, 0.109820f, 0.224088f, 0.246252f, -0.597223f, 0.445008f, 0.029908f, 0.193080f, 0.155921f, 0.496882f, -0.155950f, 0.135696f, 0.785521f, 0.058376f, 0.322211f, 0.407966f, -0.178692f, -0.696145f, 0.320436f, -0.027798f, 0.333333f, 0.022252f, 0.486667f};
constexpr float ML_B1[32] = {-1.196790f, -0.910362f, -0.735330f, -0.444485f, -0.349577f, -0.616864f, -0.929563f, 0.188336f, -0.472746f, -0.902814f, -0.863133f, -1.338779f, -0.879227f, 0.025414f, 0.306644f, 0.027167f, -0.438944f, -0.428279f, -0.616010f, 0.011592f, -0.729165f, -0.794161f, -1.129043f, 0.315927f, -0.624852f, -1.085310f, -0.591714f, -0.245666f, -1.175811f, 0.271361f, 0.242067f, -0.511727f};

// Layer 2: 32 -> 16 (ReLU)
constexpr float ML_W2[512] = {2.083914f, -1.295496f, -1.175936f, 1.796752f, 0.333454f, 2.314061f, -0.708310f, 1.874098f, -1.968999f, -1.587333f, 1.582274f, 1.085664f, -0.986158f, 1.797301f, 0.115501f, 1.344911f, 0.284709f, -1.735902f, 0.279576f, 0.360900f, 0.271908f, 0.096210f, -0.945743f, 0.309494f, 0.427915f, -0.690013f, 0.125230f, 0.234680f, -2.341623f, 0.554037f, -0.387244f, 0.042081f, -2.298456f, -0.062909f, 0.088029f, -2.126439f, -1.116893f, -2.241993f, -0.112161f, -1.490705f, -0.222589f, -0.067331f, -1.864088f, -0.975833f, -0.113908f, -2.463798f, 0.234381f, -1.839592f, 0.062085f, -1.192482f, -0.032574f, 0.076349f, -0.120148f, 0.069491f, -0.097062f, -0.093297f, -0.144179f, -0.458702f, 0.290876f, 0.138961f, -1.205355f, -0.162328f, -1.279401f, 0.367795f, 0.111569f, 0.057863f, 0.019599f, 0.314041f, -2.151834f, -0.007630f, -1.017275f, -1.267603f, 0.595320f, 0.604906f, 0.278698f, -2.075800f, -0.350745f, -0.326878f, -3.659881f, 0.177650f, 0.250223f, 0.928888f, 1.339900f, 0.392115f, 0.273623f, 0.261808f, 0.596521f, 0.562424f, 1.269879f, 1.057225f, -1.516979f, 0.316132f, 0.853127f, 0.429302f, -2.288910f, -1.639215f, 2.638565f, -1.816197f, -2.029469f, 1.823028f, 2.075545f, 1.104037f, -2.263871f, 2.451661f, -1.319724f, -2.177594f, 1.353545f, 2.464409f, -1.728334f, 2.182773f, 0.518481f, 0.699820f, -0.930468f, 0.029812f, 0.128841f, -0.629600f, -0.238050f, -1.184967f, 0.083697f, -0.153706f, 0.551717f, 0.036194f, -2.240990f, -0.369644f, 0.025176f, -0.082807f, 0.052681f, -2.686333f, -1.843843f, -0.064054f, 0.067068f, -2.329985f, -0.576178f, -1.602985f, -0.017300f, -0.867995f, -0.249042f, 0.009748f, -1.685063f, -0.671356f, -0.039611f, -2.018375f, 0.292803f, -1.618676f, 0.640259f, -0.714407f, -1.900605f, 1.092592f, 0.991626f, 1.178154f, -2.114048f, 0.707998f, 0.842173f, -1.411237f, 0.542747f, 0.710684f, -0.947786f, 0.902315f, 0.244402f, -0.446498f, -0.425688f, 0.049599f, 0.038008f, -2.071572f, 0.210087f, 0.032273f, -0.040447f, 0.128771f, -0.312340f, 0.066070f, -2.125641f, 0.208643f, -0.000890f, -0.038700f, 0.334385f, -1.490039f, -1.158447f, 0.112646f, -1.915440f, -1.113413f, -1.044894f, -1.409351f, -1.773017f, -1.155089f, 0.761380f, 0.053760f, -1.291648f, -1.330785f, 0.166914f, -0.881458f, -0.337533f, -1.900374f, 0.177654f, 0.676362f, 0.526674f, -0.960938f, 0.190338f, 0.209565f, 0.550911f, 0.145616f, 0.395938f, 0.543924f, -0.766979f, 0.133631f, 0.952556f, -0.618587f, -4.624383f, -0.468129f, 0.095364f, 0.134184f, -0.057864f, 0.112935f, -1.815420f, 0.022269f, 0.076638f, -0.956727f, 0.108730f, 0.310300f, 0.224462f, -1.692582f, 0.520972f, -0.350569f, -3.349845f, 0.155993f, 0.113181f, 0.272053f, 0.112260f, 0.091221f, 0.161030f, 0.245362f, 0.192907f, 0.101661f, -0.414023f, 0.325293f, 0.276536f, 0.211107f, 0.257102f, 0.005155f, -3.308553f, 0.241915f, 0.077628f, 0.393527f, -0.021204f, 0.081476f, -1.430278f, 0.036757f, 0.464112f, -0.402208f, -0.145127f, 0.265652f, 0.050599f, -1.423822f, 0.502373f, -0.023929f, -2.762946f, 0.090884f, 1.246480f, -1.157832f, -0.731500f, 0.932536f, 0.484634f, 1.410901f, 0.535484f, 0.652801f, -2.679044f, -0.930328f, 0.783796f, 0.515225f, -0.809911f, 0.144406f, -1.898198f, 0.875090f, 0.123833f, 0.225961f, -2.266602f, -0.002128f, -0.022123f, 0.037913f, 0.181503f, 0.022836f, -1.335914f, -0.009313f, -0.189140f, -0.029605f, 0.372333f, -0.004874f, -0.662650f, -0.106281f, 0.890162f, -1.218563f, -1.135001f, 1.159460f, 2.053020f, 0.440576f, -1.154744f, 2.010120f, -0.389635f, -1.416446f, 1.712922f, 2.162389f, -1.461562f, 0.930189f, -2.999228f, 1.130024f, -0.133640f, 1.085920f, 0.819190f, -0.225402f, 0.361995f, -0.056439f, 0.393963f, 0.216076f, 0.029093f, 1.105130f, -1.165200f, 0.246038f, 0.797521f, 0.180327f, -3.549909f, -1.461126f, 0.331176f, 0.333065f, -0.123094f, 0.048100f, 0.044732f, -0.003478f, -0.022949f, 0.132778f, 0.373117f, 0.316318f, 0.122016f, 0.164808f, 0.349660f, -0.450400f, -4.725821f, -0.037300f, 1.739080f, -2.426139f, -2.576806f, 1.887012f, 1.977980f, 1.104917f, -2.038387f, 2.062189f, -0.752186f, -2.665581f, 1.058582f, 1.724525f, -2.036667f, 1.491369f, -1.163847f, 0.921000f, 0.754493f, -0.714312f, -1.795012f, 0.500004f, 0.710740f, 1.054429f, -2.047493f, 0.341806f, 0.818890f, -1.197980f, 0.664499f, 0.575198f, -0.817601f, 0.421365f, -0.548046f, -0.409796f, -0.294874f, 0.014141f, 0.014158f, -0.188647f, -0.053200f, -1.407949f, 0.020841f, 0.004479f, 0.023505f, 0.013016f, -1.493131f, -0.059651f, 0.007618f, -0.054645f, 0.019228f, -2.317012f, 0.256674f, -2.322301f, 0.131499f, 0.238694f, 0.298330f, 0.305755f, -0.142182f, 0.682822f, -0.309373f, -1.013394f, -0.125151f, 0.315033f, -2.186232f, 0.299311f, 0.642089f, 0.110769f, 1.178588f, -1.849747f, -2.019956f, 0.901816f, -0.121235f, 0.949711f, -1.745496f, 0.455148f, 0.263229f, -2.154725f, 0.998109f, 0.385177f, -1.437167f, 0.673611f, 1.086019f, 0.350538f, -0.065531f, -0.243295f, 0.079825f, -0.006688f, 0.273831f, -0.060865f, -1.917291f, 0.158768f, 0.440505f, -0.483374f, -0.085578f, 0.258261f, -1.682882f, 0.130560f, 0.704041f, -0.158697f, -0.116825f, 0.195551f, -0.347286f, 0.313659f, 0.031159f, -0.172062f, -1.145844f, 0.054247f, 0.347087f, 0.156353f, -0.195954f, 0.025727f, 0.127541f, 0.490490f, -0.239958f, -0.342676f, -1.086385f, 1.039127f, 0.592772f, -1.043929f, 0.150906f, -1.259096f, 0.104477f, -0.142933f, 0.652800f, 0.946406f, -0.952063f, 0.170117f, 1.027750f, -1.110784f, -2.573279f, -0.890794f, -0.396092f, 0.008083f, 0.002038f, -0.268362f, -0.040250f, -1.728473f, 0.004656f, -0.016659f, 0.034510f, 0.008588f, -1.793056f, -0.075323f, 0.006708f, -0.039278f, 0.031542f, -2.695094f, -0.519759f, 0.010135f, 0.021614f, -0.188905f, -0.115064f, -0.950476f, -0.017994f, -0.096342f, 0.036207f, 0.002305f, -1.130777f, -0.152907f, 0.009120f, 0.110089f, 0.078794f, -1.430667f, 0.454328f, -2.278357f, -0.055802f, 0.084639f, 0.415185f, 0.337232f, -0.002135f, 0.561406f, -0.891394f, -1.070346f, 0.106400f, 0.410998f, -1.570354f, 0.809495f, -0.485656f, -0.151911f};
constexpr float ML_B2[16] = {0.200813f, -0.088569f, 0.339033f, 0.175160f, 0.040659f, 0.369063f, 0.357423f, 0.013308f, -0.766467f, -0.053194f, 0.422619f, 0.075789f, -0.094336f, -0.089174f, 0.634216f, 0.497129f};

// Layer 3: 16 -> 1 (Sigmoid)
constexpr float ML_W3[16] = {-1.873348f, 2.883009f, 2.359273f, -2.437184f, -1.975422f, -2.283291f, 2.793575f, -1.711781f, 2.763400f, 1.838516f, -3.160473f, -1.722393f, 2.867469f, -2.614794f, -2.108523f, -3.463310f};
constexpr float ML_B3[1] = {1.249320f};

constexpr uint8_t ML_MODEL_LAYER_INPUT_SIZES[ML_MODEL_NUM_LAYERS] = {9, 32, 16};
constexpr uint8_t ML_MODEL_LAYER_OUTPUT_SIZES[ML_MODEL_NUM_LAYERS] = {32, 16, 1};
constexpr const float* ML_MODEL_WEIGHTS[ML_MODEL_NUM_LAYERS] = {ML_W1, ML_W2, ML_W3};
constexpr const float* ML_MODEL_BIASES[ML_MODEL_NUM_LAYERS] = {ML_B1, ML_B2, ML_B3};

}  // namespace espectre
}  // namespace esphome
